%YAML:1.0
my_svm: !!opencv-ml-svm
   svm_type: C_SVC
   kernel: { type:LINEAR }
   C: 1.0000000000000001e-01
   term_criteria: { epsilon:2.2204460492503131e-16, iterations:100 }
   var_all: 32
   var_count: 32
   class_count: 2
   class_labels: !!opencv-matrix
      rows: 1
      cols: 2
      dt: i
      data: [ -1, 1 ]
   sv_total: 1
   support_vectors:
      - [ 9.37279197e-04, 4.38338990e-04, 3.63010098e-04,
          -2.65884359e-04, 3.21285013e-04, 1.96949259e-04,
          -2.66398594e-04, -1.00269041e-03, 6.08705857e-04,
          -5.88148134e-04, 3.97462922e-04, 6.36487443e-04,
          -8.40359018e-04, -5.21136273e-04, 4.28067200e-04,
          2.52548663e-04, -8.48001291e-05, -7.63491436e-04,
          4.20401804e-04, 3.80615704e-04, -3.02808068e-04,
          7.95365777e-05, -6.48270216e-05, -1.30475470e-04,
          2.98455998e-04, 2.81872315e-04, -1.17110816e-04,
          -4.73188207e-04, -2.04022319e-04, -6.16538382e-05,
          2.57706852e-04, -8.91255680e-04 ]
   decision_functions:
      -
         sv_count: 1
         rho: -3.0016374236073218e-01
         alpha: [ 1. ]
         index: [ 0 ]
